<?xml version="1.0"?>
<opencv_storage>
<cascade>
  <stageType>BOOST</stageType>
  <featureType>HAAR</featureType>
  <height>30</height>
  <width>30</width>
  <stageParams>
    <boostType>GAB</boostType>
    <minHitRate>9.9500000476837158e-01</minHitRate>
    <maxFalseAlarm>5.0000000000000000e-01</maxFalseAlarm>
    <weightTrimRate>9.4999999999999996e-01</weightTrimRate>
    <maxDepth>1</maxDepth>
    <maxWeakCount>100</maxWeakCount></stageParams>
  <featureParams>
    <maxCatCount>0</maxCatCount>
    <featSize>1</featSize>
    <mode>BASIC</mode></featureParams>
  <stageNum>14</stageNum>
  <stages>
    <!-- stage 0 -->
    <_>
      <maxWeakCount>4</maxWeakCount>
      <stageThreshold>-1.3723430633544922e+00</stageThreshold>
      <weakClassifiers>
        <_>
          <internalNodes>
            0 -1 65 1.2880164384841919e-01</internalNodes>
          <leafValues>
            -9.0835577249526978e-01 7.6536315679550171e-01</leafValues></_>
        <_>
          <internalNodes>
            0 -1 51 4.9616217613220215e-02</internalNodes>
          <leafValues>
            -8.8864272832870483e-01 2.0242732763290405e-01</leafValues></_>
        <_>
          <internalNodes>
            0 -1 90 1.6913660801947117e-03</internalNodes>
          <leafValues>
            2.4221917986869812e-01 -7.9420930147171021e-01</leafValues></_>
        <_>
          <internalNodes>
            0 -1 59 3.4060217440128326e-02</internalNodes>
          <leafValues>
            1.8243621289730072e-01 -9.5443838834762573e-01</leafValues></_></weakClassifiers></_>
    <!-- stage 1 -->
    <_>
      <maxWeakCount>6</maxWeakCount>
      <stageThreshold>-1.7604569196701050e+00</stageThreshold>
      <weakClassifiers>
        <_>
          <internalNodes>
            0 -1 73 -6.7917279899120331e-02</internalNodes>
          <leafValues>
            8.2832616567611694e-01 -9.1872084140777588e-01</leafValues></_>
        <_>
          <internalNodes>
            0 -1 68 9.1671749949455261e-02</internalNodes>
          <leafValues>
            -7.2396415472030640e-01 5.4357230663299561e-01</leafValues></_>
        <_>
          <internalNodes>
            0 -1 25 1.4202834665775299e-01</internalNodes>
          <leafValues>
            -3.8701266050338745e-01 7.9712623357772827e-01</leafValues></_>
        <_>
          <internalNodes>
            0 -1 56 8.8916689157485962e-02</internalNodes>
          <leafValues>
            -3.7355095148086548e-01 8.5125446319580078e-01</leafValues></_>
        <_>
          <internalNodes>
            0 -1 30 3.4965567756444216e-03</internalNodes>
          <leafValues>
            3.9604511857032776e-01 -9.9186313152313232e-01</leafValues></_>
        <_>
          <internalNodes>
            0 -1 58 -5.6398902088403702e-03</internalNodes>
          <leafValues>
            -9.3205952644348145e-01 2.4674654006958008e-01</leafValues></_></weakClassifiers></_>
    <!-- stage 2 -->
    <_>
      <maxWeakCount>6</maxWeakCount>
      <stageThreshold>-1.3648045063018799e+00</stageThreshold>
      <weakClassifiers>
        <_>
          <internalNodes>
            0 -1 63 1.5393593907356262e-01</internalNodes>
          <leafValues>
            -8.9112901687622070e-01 7.3876404762268066e-01</leafValues></_>
        <_>
          <internalNodes>
            0 -1 13 1.0181945562362671e-01</internalNodes>
          <leafValues>
            -5.9844142198562622e-01 5.6242954730987549e-01</leafValues></_>
        <_>
          <internalNodes>
            0 -1 31 4.3025666475296021e-01</internalNodes>
          <leafValues>
            -3.4085246920585632e-01 8.6222791671752930e-01</leafValues></_>
        <_>
          <internalNodes>
            0 -1 87 3.2647489570081234e-03</internalNodes>
          <leafValues>
            3.0562424659729004e-01 -7.9908293485641479e-01</leafValues></_>
        <_>
          <internalNodes>
            0 -1 88 -1.2389888055622578e-02</internalNodes>
          <leafValues>
            3.8811701536178589e-01 -5.5942589044570923e-01</leafValues></_>
        <_>
          <internalNodes>
            0 -1 37 -1.1618737131357193e-01</internalNodes>
          <leafValues>
            8.9998656511306763e-01 -2.2812287509441376e-01</leafValues></_></weakClassifiers></_>
    <!-- stage 3 -->
    <_>
      <maxWeakCount>5</maxWeakCount>
      <stageThreshold>-1.0850124359130859e+00</stageThreshold>
      <weakClassifiers>
        <_>
          <internalNodes>
            0 -1 71 1.1811992526054382e-01</internalNodes>
          <leafValues>
            -7.6699030399322510e-01 5.8778625726699829e-01</leafValues></_>
        <_>
          <internalNodes>
            0 -1 72 -6.0695160180330276e-02</internalNodes>
          <leafValues>
            3.1942230463027954e-01 -6.6215252876281738e-01</leafValues></_>
        <_>
          <internalNodes>
            0 -1 48 -5.7254591956734657e-03</internalNodes>
          <leafValues>
            -9.0714806318283081e-01 1.7561350762844086e-01</leafValues></_>
        <_>
          <internalNodes>
            0 -1 1 -1.1017784476280212e-02</internalNodes>
          <leafValues>
            -9.3289780616760254e-01 1.7276284098625183e-01</leafValues></_>
        <_>
          <internalNodes>
            0 -1 2 -3.9112595841288567e-03</internalNodes>
          <leafValues>
            -9.1104328632354736e-01 1.1983990669250488e-01</leafValues></_></weakClassifiers></_>
    <!-- stage 4 -->
    <_>
      <maxWeakCount>6</maxWeakCount>
      <stageThreshold>-1.1701923608779907e+00</stageThreshold>
      <weakClassifiers>
        <_>
          <internalNodes>
            0 -1 69 1.2856456637382507e-01</internalNodes>
          <leafValues>
            -8.1074577569961548e-01 2.2140608727931976e-01</leafValues></_>
        <_>
          <internalNodes>
            0 -1 33 -2.3187613487243652e-01</internalNodes>
          <leafValues>
            8.6872887611389160e-01 -3.0863684415817261e-01</leafValues></_>
        <_>
          <internalNodes>
            0 -1 23 2.2275614738464355e-01</internalNodes>
          <leafValues>
            -2.3267073929309845e-01 8.2779067754745483e-01</leafValues></_>
        <_>
          <internalNodes>
            0 -1 47 -1.0854233056306839e-02</internalNodes>
          <leafValues>
            -9.4173920154571533e-01 2.5734952092170715e-01</leafValues></_>
        <_>
          <internalNodes>
            0 -1 94 -1.0267839767038822e-02</internalNodes>
          <leafValues>
            7.7279889583587646e-01 -2.9831337928771973e-01</leafValues></_>
        <_>
          <internalNodes>
            0 -1 83 -5.7306075177621096e-05</internalNodes>
          <leafValues>
            -7.8439092636108398e-01 2.2282488644123077e-01</leafValues></_></weakClassifiers></_>
    <!-- stage 5 -->
    <_>
      <maxWeakCount>6</maxWeakCount>
      <stageThreshold>-1.0009683370590210e+00</stageThreshold>
      <weakClassifiers>
        <_>
          <internalNodes>
            0 -1 28 2.6231709867715836e-02</internalNodes>
          <leafValues>
            9.2876464128494263e-02 -8.2768100500106812e-01</leafValues></_>
        <_>
          <internalNodes>
            0 -1 44 4.0480457246303558e-02</internalNodes>
          <leafValues>
            -9.1858518123626709e-01 1.4680768549442291e-01</leafValues></_>
        <_>
          <internalNodes>
            0 -1 27 -2.6358062028884888e-01</internalNodes>
          <leafValues>
            8.2113456726074219e-01 -2.7743157744407654e-01</leafValues></_>
        <_>
          <internalNodes>
            0 -1 23 2.1807211637496948e-01</internalNodes>
          <leafValues>
            -2.2653590142726898e-01 8.3319115638732910e-01</leafValues></_>
        <_>
          <internalNodes>
            0 -1 42 -2.0336834713816643e-02</internalNodes>
          <leafValues>
            -9.1857677698135376e-01 2.6664912700653076e-01</leafValues></_>
        <_>
          <internalNodes>
            0 -1 35 -1.8764253705739975e-02</internalNodes>
          <leafValues>
            -9.1667437553405762e-01 1.9017089903354645e-01</leafValues></_></weakClassifiers></_>
    <!-- stage 6 -->
    <_>
      <maxWeakCount>7</maxWeakCount>
      <stageThreshold>-1.2599313259124756e+00</stageThreshold>
      <weakClassifiers>
        <_>
          <internalNodes>
            0 -1 38 -1.2631994485855103e-01</internalNodes>
          <leafValues>
            7.7443611621856689e-01 -5.2016544342041016e-01</leafValues></_>
        <_>
          <internalNodes>
            0 -1 29 2.9938720166683197e-02</internalNodes>
          <leafValues>
            3.4228843450546265e-01 -6.2982892990112305e-01</leafValues></_>
        <_>
          <internalNodes>
            0 -1 54 -1.0019602254033089e-02</internalNodes>
          <leafValues>
            -9.3459957838058472e-01 2.0289584994316101e-01</leafValues></_>
        <_>
          <internalNodes>
            0 -1 82 -2.2212137992028147e-05</internalNodes>
          <leafValues>
            -8.9366328716278076e-01 1.6793380677700043e-01</leafValues></_>
        <_>
          <internalNodes>
            0 -1 79 2.1487812773557380e-05</internalNodes>
          <leafValues>
            2.5497525930404663e-01 -7.5285667181015015e-01</leafValues></_>
        <_>
          <internalNodes>
            0 -1 84 -3.6784062103834003e-05</internalNodes>
          <leafValues>
            -7.5763928890228271e-01 1.9544996321201324e-01</leafValues></_>
        <_>
          <internalNodes>
            0 -1 24 2.2795894183218479e-03</internalNodes>
          <leafValues>
            2.0630359649658203e-01 -7.3081982135772705e-01</leafValues></_></weakClassifiers></_>
    <!-- stage 7 -->
    <_>
      <maxWeakCount>8</maxWeakCount>
      <stageThreshold>-1.4619534015655518e+00</stageThreshold>
      <weakClassifiers>
        <_>
          <internalNodes>
            0 -1 3 2.1577965468168259e-02</internalNodes>
          <leafValues>
            -6.0024082660675049e-01 3.6549165844917297e-01</leafValues></_>
        <_>
          <internalNodes>
            0 -1 34 -2.2823098301887512e-01</internalNodes>
          <leafValues>
            8.0645555257797241e-01 -2.9166808724403381e-01</leafValues></_>
        <_>
          <internalNodes>
            0 -1 53 7.6016306877136230e-02</internalNodes>
          <leafValues>
            -2.0381227135658264e-01 8.8000059127807617e-01</leafValues></_>
        <_>
          <internalNodes>
            0 -1 62 -1.0019589215517044e-02</internalNodes>
          <leafValues>
            -9.3251240253448486e-01 2.5429669022560120e-01</leafValues></_>
        <_>
          <internalNodes>
            0 -1 61 5.6766103953123093e-03</internalNodes>
          <leafValues>
            2.3959407210350037e-01 -7.5639319419860840e-01</leafValues></_>
        <_>
          <internalNodes>
            0 -1 92 -9.5107769593596458e-03</internalNodes>
          <leafValues>
            8.1613957881927490e-01 -2.4218527972698212e-01</leafValues></_>
        <_>
          <internalNodes>
            0 -1 52 -5.4905256256461143e-03</internalNodes>
          <leafValues>
            -8.6000579595565796e-01 2.0544901490211487e-01</leafValues></_>
        <_>
          <internalNodes>
            0 -1 12 1.6967310803011060e-03</internalNodes>
          <leafValues>
            1.7260053753852844e-01 -7.2422748804092407e-01</leafValues></_></weakClassifiers></_>
    <!-- stage 8 -->
    <_>
      <maxWeakCount>6</maxWeakCount>
      <stageThreshold>-1.1771005392074585e+00</stageThreshold>
      <weakClassifiers>
        <_>
          <internalNodes>
            0 -1 36 4.2044319212436676e-02</internalNodes>
          <leafValues>
            -2.6495078578591347e-02 -8.7030714750289917e-01</leafValues></_>
        <_>
          <internalNodes>
            0 -1 66 -4.2102783918380737e-03</internalNodes>
          <leafValues>
            -8.4410315752029419e-01 1.2204459309577942e-01</leafValues></_>
        <_>
          <internalNodes>
            0 -1 67 -6.9106116890907288e-02</internalNodes>
          <leafValues>
            5.2584695816040039e-01 -3.4059128165245056e-01</leafValues></_>
        <_>
          <internalNodes>
            0 -1 18 8.7566170841455460e-03</internalNodes>
          <leafValues>
            -2.6919960975646973e-01 7.3361021280288696e-01</leafValues></_>
        <_>
          <internalNodes>
            0 -1 0 -1.4431428164243698e-02</internalNodes>
          <leafValues>
            -9.1493779420852661e-01 2.1326924860477448e-01</leafValues></_>
        <_>
          <internalNodes>
            0 -1 5 -5.8972992002964020e-02</internalNodes>
          <leafValues>
            -8.9875459671020508e-01 1.4827997982501984e-01</leafValues></_></weakClassifiers></_>
    <!-- stage 9 -->
    <_>
      <maxWeakCount>8</maxWeakCount>
      <stageThreshold>-1.3510450124740601e+00</stageThreshold>
      <weakClassifiers>
        <_>
          <internalNodes>
            0 -1 26 2.0213451236486435e-02</internalNodes>
          <leafValues>
            4.3771043419837952e-02 -8.4189724922180176e-01</leafValues></_>
        <_>
          <internalNodes>
            0 -1 41 -3.6652866750955582e-02</internalNodes>
          <leafValues>
            5.0960850715637207e-01 -3.9806815981864929e-01</leafValues></_>
        <_>
          <internalNodes>
            0 -1 39 6.2433658167719841e-03</internalNodes>
          <leafValues>
            2.8903335332870483e-01 -5.7575070858001709e-01</leafValues></_>
        <_>
          <internalNodes>
            0 -1 43 -1.3151101768016815e-02</internalNodes>
          <leafValues>
            -9.2071264982223511e-01 2.2688010334968567e-01</leafValues></_>
        <_>
          <internalNodes>
            0 -1 8 4.2408853769302368e-02</internalNodes>
          <leafValues>
            -2.6867365837097168e-01 7.7696728706359863e-01</leafValues></_>
        <_>
          <internalNodes>
            0 -1 75 -5.4196672863326967e-05</internalNodes>
          <leafValues>
            -8.5957044363021851e-01 2.1738415956497192e-01</leafValues></_>
        <_>
          <internalNodes>
            0 -1 89 2.2177505306899548e-03</internalNodes>
          <leafValues>
            1.4548078179359436e-01 -8.8875091075897217e-01</leafValues></_>
        <_>
          <internalNodes>
            0 -1 95 -8.3636520430445671e-03</internalNodes>
          <leafValues>
            -7.9919666051864624e-01 1.4359967410564423e-01</leafValues></_></weakClassifiers></_>
    <!-- stage 10 -->
    <_>
      <maxWeakCount>7</maxWeakCount>
      <stageThreshold>-1.1399900913238525e+00</stageThreshold>
      <weakClassifiers>
        <_>
          <internalNodes>
            0 -1 17 -1.8984314054250717e-02</internalNodes>
          <leafValues>
            5.5103883147239685e-02 -7.8774017095565796e-01</leafValues></_>
        <_>
          <internalNodes>
            0 -1 91 -1.4906728640198708e-02</internalNodes>
          <leafValues>
            3.7392202019691467e-01 -4.7574755549430847e-01</leafValues></_>
        <_>
          <internalNodes>
            0 -1 45 -5.4680691100656986e-03</internalNodes>
          <leafValues>
            -8.2733190059661865e-01 1.7290490865707397e-01</leafValues></_>
        <_>
          <internalNodes>
            0 -1 21 -1.2644371949136257e-02</internalNodes>
          <leafValues>
            4.3712809681892395e-01 -3.8943532109260559e-01</leafValues></_>
        <_>
          <internalNodes>
            0 -1 16 -8.2278419286012650e-03</internalNodes>
          <leafValues>
            -8.4840375185012817e-01 1.7894980311393738e-01</leafValues></_>
        <_>
          <internalNodes>
            0 -1 14 1.3924607075750828e-02</internalNodes>
          <leafValues>
            2.2553114593029022e-01 -7.2834277153015137e-01</leafValues></_>
        <_>
          <internalNodes>
            0 -1 6 -7.4550053104758263e-03</internalNodes>
          <leafValues>
            -8.4654247760772705e-01 1.3633720576763153e-01</leafValues></_></weakClassifiers></_>
    <!-- stage 11 -->
    <_>
      <maxWeakCount>10</maxWeakCount>
      <stageThreshold>-1.2094693183898926e+00</stageThreshold>
      <weakClassifiers>
        <_>
          <internalNodes>
            0 -1 20 -5.7824689429253340e-04</internalNodes>
          <leafValues>
            1.3009540736675262e-02 -7.7841454744338989e-01</leafValues></_>
        <_>
          <internalNodes>
            0 -1 46 9.6915110945701599e-02</internalNodes>
          <leafValues>
            -2.7523592114448547e-01 8.3107084035873413e-01</leafValues></_>
        <_>
          <internalNodes>
            0 -1 81 1.4800727367401123e-01</internalNodes>
          <leafValues>
            -3.4075292944908142e-01 5.5949038267135620e-01</leafValues></_>
        <_>
          <internalNodes>
            0 -1 55 1.2085519265383482e-03</internalNodes>
          <leafValues>
            2.6849573850631714e-01 -5.3515416383743286e-01</leafValues></_>
        <_>
          <internalNodes>
            0 -1 80 -2.0922263502143323e-05</internalNodes>
          <leafValues>
            -8.2502883672714233e-01 1.9656978547573090e-01</leafValues></_>
        <_>
          <internalNodes>
            0 -1 40 7.5640097260475159e-02</internalNodes>
          <leafValues>
            4.8134297132492065e-01 -3.1492251157760620e-01</leafValues></_>
        <_>
          <internalNodes>
            0 -1 93 -1.0011054575443268e-02</internalNodes>
          <leafValues>
            7.2228884696960449e-01 -2.2798824310302734e-01</leafValues></_>
        <_>
          <internalNodes>
            0 -1 60 -5.9498595073819160e-03</internalNodes>
          <leafValues>
            -9.5861083269119263e-01 1.7613478004932404e-01</leafValues></_>
        <_>
          <internalNodes>
            0 -1 64 1.5949923545122147e-02</internalNodes>
          <leafValues>
            1.1841807514429092e-01 -8.5183048248291016e-01</leafValues></_>
        <_>
          <internalNodes>
            0 -1 32 6.7772814072668552e-03</internalNodes>
          <leafValues>
            1.5443527698516846e-01 -7.1577823162078857e-01</leafValues></_></weakClassifiers></_>
    <!-- stage 12 -->
    <_>
      <maxWeakCount>10</maxWeakCount>
      <stageThreshold>-1.3826320171356201e+00</stageThreshold>
      <weakClassifiers>
        <_>
          <internalNodes>
            0 -1 7 1.5614079311490059e-02</internalNodes>
          <leafValues>
            -4.7373637557029724e-01 8.5714286565780640e-01</leafValues></_>
        <_>
          <internalNodes>
            0 -1 50 -1.1134357191622257e-02</internalNodes>
          <leafValues>
            5.0797909498214722e-01 -3.5502591729164124e-01</leafValues></_>
        <_>
          <internalNodes>
            0 -1 74 -5.6303896009922028e-02</internalNodes>
          <leafValues>
            2.5762686133384705e-01 -6.5275430679321289e-01</leafValues></_>
        <_>
          <internalNodes>
            0 -1 19 1.3978267088532448e-02</internalNodes>
          <leafValues>
            -1.8008936941623688e-01 8.3865636587142944e-01</leafValues></_>
        <_>
          <internalNodes>
            0 -1 15 3.0718168709427118e-03</internalNodes>
          <leafValues>
            2.0176823437213898e-01 -8.6249405145645142e-01</leafValues></_>
        <_>
          <internalNodes>
            0 -1 9 1.3443257659673691e-02</internalNodes>
          <leafValues>
            1.3422159850597382e-01 -8.3784836530685425e-01</leafValues></_>
        <_>
          <internalNodes>
            0 -1 77 5.9781232848763466e-03</internalNodes>
          <leafValues>
            1.3176321983337402e-01 -8.2068735361099243e-01</leafValues></_>
        <_>
          <internalNodes>
            0 -1 11 4.4598625972867012e-03</internalNodes>
          <leafValues>
            1.2270968407392502e-01 -7.9970628023147583e-01</leafValues></_>
        <_>
          <internalNodes>
            0 -1 85 3.8508649449795485e-03</internalNodes>
          <leafValues>
            1.0918794572353363e-01 -9.8333954811096191e-01</leafValues></_>
        <_>
          <internalNodes>
            0 -1 57 9.7727803513407707e-03</internalNodes>
          <leafValues>
            -3.5898792743682861e-01 3.6453822255134583e-01</leafValues></_></weakClassifiers></_>
    <!-- stage 13 -->
    <_>
      <maxWeakCount>9</maxWeakCount>
      <stageThreshold>-1.6050567626953125e+00</stageThreshold>
      <weakClassifiers>
        <_>
          <internalNodes>
            0 -1 4 2.4752333760261536e-02</internalNodes>
          <leafValues>
            -5.8999997377395630e-01 2.3999999463558197e-01</leafValues></_>
        <_>
          <internalNodes>
            0 -1 86 4.0193361928686500e-04</internalNodes>
          <leafValues>
            1.2790082395076752e-01 -8.2196837663650513e-01</leafValues></_>
        <_>
          <internalNodes>
            0 -1 78 -5.0661996938288212e-03</internalNodes>
          <leafValues>
            -6.6754031181335449e-01 1.9578118622303009e-01</leafValues></_>
        <_>
          <internalNodes>
            0 -1 10 4.1980403475463390e-03</internalNodes>
          <leafValues>
            -7.9915952682495117e-01 1.9551593065261841e-01</leafValues></_>
        <_>
          <internalNodes>
            0 -1 96 7.1728285402059555e-03</internalNodes>
          <leafValues>
            2.1206916868686676e-01 -7.1299135684967041e-01</leafValues></_>
        <_>
          <internalNodes>
            0 -1 22 3.3586733043193817e-03</internalNodes>
          <leafValues>
            1.5030078589916229e-01 -7.7391552925109863e-01</leafValues></_>
        <_>
          <internalNodes>
            0 -1 70 -4.7560697421431541e-03</internalNodes>
          <leafValues>
            -9.3226927518844604e-01 8.0994039773941040e-02</leafValues></_>
        <_>
          <internalNodes>
            0 -1 76 6.6195302642881870e-03</internalNodes>
          <leafValues>
            1.5479184687137604e-01 -6.1986917257308960e-01</leafValues></_>
        <_>
          <internalNodes>
            0 -1 49 8.6839627474546432e-03</internalNodes>
          <leafValues>
            -3.4487277269363403e-01 3.4371641278266907e-01</leafValues></_></weakClassifiers></_></stages>
  <features>
    <_>
      <rects>
        <_>
          0 0 22 2 -1.</_>
        <_>
          11 0 11 2 2.</_></rects>
      <tilted>0</tilted></_>
    <_>
      <rects>
        <_>
          0 0 27 4 -1.</_>
        <_>
          0 2 27 2 2.</_></rects>
      <tilted>0</tilted></_>
    <_>
      <rects>
        <_>
          0 1 12 1 -1.</_>
        <_>
          6 1 6 1 2.</_></rects>
      <tilted>0</tilted></_>
    <_>
      <rects>
        <_>
          0 2 4 26 -1.</_>
        <_>
          2 2 2 26 2.</_></rects>
      <tilted>0</tilted></_>
    <_>
      <rects>
        <_>
          0 2 6 27 -1.</_>
        <_>
          2 2 2 27 3.</_></rects>
      <tilted>0</tilted></_>
    <_>
      <rects>
        <_>
          0 2 18 22 -1.</_>
        <_>
          6 2 6 22 3.</_></rects>
      <tilted>0</tilted></_>
    <_>
      <rects>
        <_>
          0 6 1 24 -1.</_>
        <_>
          0 14 1 8 3.</_></rects>
      <tilted>0</tilted></_>
    <_>
      <rects>
        <_>
          0 6 2 21 -1.</_>
        <_>
          1 6 1 21 2.</_></rects>
      <tilted>0</tilted></_>
    <_>
      <rects>
        <_>
          0 7 6 22 -1.</_>
        <_>
          2 7 2 22 3.</_></rects>
      <tilted>0</tilted></_>
    <_>
      <rects>
        <_>
          0 8 2 15 -1.</_>
        <_>
          0 13 2 5 3.</_></rects>
      <tilted>0</tilted></_>
    <_>
      <rects>
        <_>
          0 8 14 11 -1.</_>
        <_>
          7 8 7 11 2.</_></rects>
      <tilted>0</tilted></_>
    <_>
      <rects>
        <_>
          0 11 1 14 -1.</_>
        <_>
          0 18 1 7 2.</_></rects>
      <tilted>0</tilted></_>
    <_>
      <rects>
        <_>
          0 13 2 6 -1.</_>
        <_>
          0 16 2 3 2.</_></rects>
      <tilted>0</tilted></_>
    <_>
      <rects>
        <_>
          0 13 30 4 -1.</_>
        <_>
          10 13 10 4 3.</_></rects>
      <tilted>0</tilted></_>
    <_>
      <rects>
        <_>
          0 28 30 2 -1.</_>
        <_>
          10 28 10 2 3.</_></rects>
      <tilted>0</tilted></_>
    <_>
      <rects>
        <_>
          0 28 20 2 -1.</_>
        <_>
          0 29 20 1 2.</_></rects>
      <tilted>0</tilted></_>
    <_>
      <rects>
        <_>
          0 29 27 1 -1.</_>
        <_>
          9 29 9 1 3.</_></rects>
      <tilted>0</tilted></_>
    <_>
      <rects>
        <_>
          1 2 27 10 -1.</_>
        <_>
          10 2 9 10 3.</_></rects>
      <tilted>0</tilted></_>
    <_>
      <rects>
        <_>
          1 4 3 25 -1.</_>
        <_>
          2 4 1 25 3.</_></rects>
      <tilted>0</tilted></_>
    <_>
      <rects>
        <_>
          1 5 2 24 -1.</_>
        <_>
          2 5 1 24 2.</_></rects>
      <tilted>0</tilted></_>
    <_>
      <rects>
        <_>
          1 5 21 6 -1.</_>
        <_>
          8 5 7 6 3.</_></rects>
      <tilted>0</tilted></_>
    <_>
      <rects>
        <_>
          1 7 11 15 -1.</_>
        <_>
          1 12 11 5 3.</_></rects>
      <tilted>0</tilted></_>
    <_>
      <rects>
        <_>
          2 0 14 1 -1.</_>
        <_>
          9 0 7 1 2.</_></rects>
      <tilted>0</tilted></_>
    <_>
      <rects>
        <_>
          2 3 26 22 -1.</_>
        <_>
          2 3 13 11 2.</_>
        <_>
          15 14 13 11 2.</_></rects>
      <tilted>0</tilted></_>
    <_>
      <rects>
        <_>
          2 13 4 7 -1.</_>
        <_>
          4 13 2 7 2.</_></rects>
      <tilted>0</tilted></_>
    <_>
      <rects>
        <_>
          2 13 27 5 -1.</_>
        <_>
          11 13 9 5 3.</_></rects>
      <tilted>0</tilted></_>
    <_>
      <rects>
        <_>
          3 1 18 28 -1.</_>
        <_>
          9 1 6 28 3.</_></rects>
      <tilted>0</tilted></_>
    <_>
      <rects>
        <_>
          3 4 24 24 -1.</_>
        <_>
          3 4 12 12 2.</_>
        <_>
          15 16 12 12 2.</_></rects>
      <tilted>0</tilted></_>
    <_>
      <rects>
        <_>
          4 3 21 27 -1.</_>
        <_>
          11 3 7 27 3.</_></rects>
      <tilted>0</tilted></_>
    <_>
      <rects>
        <_>
          4 3 24 27 -1.</_>
        <_>
          12 3 8 27 3.</_></rects>
      <tilted>0</tilted></_>
    <_>
      <rects>
        <_>
          4 12 6 7 -1.</_>
        <_>
          6 12 2 7 3.</_></rects>
      <tilted>0</tilted></_>
    <_>
      <rects>
        <_>
          5 2 22 27 -1.</_>
        <_>
          5 11 22 9 3.</_></rects>
      <tilted>0</tilted></_>
    <_>
      <rects>
        <_>
          5 3 11 4 -1.</_>
        <_>
          5 5 11 2 2.</_></rects>
      <tilted>0</tilted></_>
    <_>
      <rects>
        <_>
          5 4 22 20 -1.</_>
        <_>
          5 4 11 10 2.</_>
        <_>
          16 14 11 10 2.</_></rects>
      <tilted>0</tilted></_>
    <_>
      <rects>
        <_>
          5 5 22 18 -1.</_>
        <_>
          5 5 11 9 2.</_>
        <_>
          16 14 11 9 2.</_></rects>
      <tilted>0</tilted></_>
    <_>
      <rects>
        <_>
          6 2 9 28 -1.</_>
        <_>
          9 2 3 28 3.</_></rects>
      <tilted>0</tilted></_>
    <_>
      <rects>
        <_>
          6 4 18 23 -1.</_>
        <_>
          12 4 6 23 3.</_></rects>
      <tilted>0</tilted></_>
    <_>
      <rects>
        <_>
          6 8 22 7 -1.</_>
        <_>
          17 8 11 7 2.</_></rects>
      <tilted>0</tilted></_>
    <_>
      <rects>
        <_>
          6 10 16 12 -1.</_>
        <_>
          6 10 8 6 2.</_>
        <_>
          14 16 8 6 2.</_></rects>
      <tilted>0</tilted></_>
    <_>
      <rects>
        <_>
          7 2 21 11 -1.</_>
        <_>
          14 2 7 11 3.</_></rects>
      <tilted>0</tilted></_>
    <_>
      <rects>
        <_>
          7 3 23 24 -1.</_>
        <_>
          7 11 23 8 3.</_></rects>
      <tilted>0</tilted></_>
    <_>
      <rects>
        <_>
          7 14 10 8 -1.</_>
        <_>
          7 14 5 4 2.</_>
        <_>
          12 18 5 4 2.</_></rects>
      <tilted>0</tilted></_>
    <_>
      <rects>
        <_>
          8 0 8 28 -1.</_>
        <_>
          12 0 4 28 2.</_></rects>
      <tilted>0</tilted></_>
    <_>
      <rects>
        <_>
          8 0 15 20 -1.</_>
        <_>
          13 0 5 20 3.</_></rects>
      <tilted>0</tilted></_>
    <_>
      <rects>
        <_>
          8 0 12 16 -1.</_>
        <_>
          8 8 12 8 2.</_></rects>
      <tilted>0</tilted></_>
    <_>
      <rects>
        <_>
          8 6 6 16 -1.</_>
        <_>
          10 6 2 16 3.</_></rects>
      <tilted>0</tilted></_>
    <_>
      <rects>
        <_>
          8 9 14 12 -1.</_>
        <_>
          8 9 7 6 2.</_>
        <_>
          15 15 7 6 2.</_></rects>
      <tilted>0</tilted></_>
    <_>
      <rects>
        <_>
          8 28 18 2 -1.</_>
        <_>
          14 28 6 2 3.</_></rects>
      <tilted>0</tilted></_>
    <_>
      <rects>
        <_>
          9 0 14 2 -1.</_>
        <_>
          16 0 7 2 2.</_></rects>
      <tilted>0</tilted></_>
    <_>
      <rects>
        <_>
          9 1 18 17 -1.</_>
        <_>
          18 1 9 17 2.</_></rects>
      <tilted>0</tilted></_>
    <_>
      <rects>
        <_>
          9 19 12 2 -1.</_>
        <_>
          13 19 4 2 3.</_></rects>
      <tilted>0</tilted></_>
    <_>
      <rects>
        <_>
          10 0 9 18 -1.</_>
        <_>
          10 9 9 9 2.</_></rects>
      <tilted>0</tilted></_>
    <_>
      <rects>
        <_>
          10 6 6 15 -1.</_>
        <_>
          12 6 2 15 3.</_></rects>
      <tilted>0</tilted></_>
    <_>
      <rects>
        <_>
          10 11 12 10 -1.</_>
        <_>
          10 11 6 5 2.</_>
        <_>
          16 16 6 5 2.</_></rects>
      <tilted>0</tilted></_>
    <_>
      <rects>
        <_>
          10 12 12 16 -1.</_>
        <_>
          14 12 4 16 3.</_></rects>
      <tilted>0</tilted></_>
    <_>
      <rects>
        <_>
          10 17 9 7 -1.</_>
        <_>
          13 17 3 7 3.</_></rects>
      <tilted>0</tilted></_>
    <_>
      <rects>
        <_>
          11 0 3 27 -1.</_>
        <_>
          11 9 3 9 3.</_></rects>
      <tilted>0</tilted></_>
    <_>
      <rects>
        <_>
          11 0 14 28 -1.</_>
        <_>
          18 0 7 28 2.</_></rects>
      <tilted>0</tilted></_>
    <_>
      <rects>
        <_>
          11 1 18 4 -1.</_>
        <_>
          11 3 18 2 2.</_></rects>
      <tilted>0</tilted></_>
    <_>
      <rects>
        <_>
          11 5 12 25 -1.</_>
        <_>
          17 5 6 25 2.</_></rects>
      <tilted>0</tilted></_>
    <_>
      <rects>
        <_>
          11 10 4 18 -1.</_>
        <_>
          13 10 2 18 2.</_></rects>
      <tilted>0</tilted></_>
    <_>
      <rects>
        <_>
          12 0 18 1 -1.</_>
        <_>
          21 0 9 1 2.</_></rects>
      <tilted>0</tilted></_>
    <_>
      <rects>
        <_>
          12 0 9 6 -1.</_>
        <_>
          12 3 9 3 2.</_></rects>
      <tilted>0</tilted></_>
    <_>
      <rects>
        <_>
          12 1 6 27 -1.</_>
        <_>
          12 10 6 9 3.</_></rects>
      <tilted>0</tilted></_>
    <_>
      <rects>
        <_>
          12 3 6 24 -1.</_>
        <_>
          15 3 3 24 2.</_></rects>
      <tilted>0</tilted></_>
    <_>
      <rects>
        <_>
          12 3 6 24 -1.</_>
        <_>
          12 11 6 8 3.</_></rects>
      <tilted>0</tilted></_>
    <_>
      <rects>
        <_>
          12 6 4 20 -1.</_>
        <_>
          14 6 2 20 2.</_></rects>
      <tilted>0</tilted></_>
    <_>
      <rects>
        <_>
          12 13 16 5 -1.</_>
        <_>
          20 13 8 5 2.</_></rects>
      <tilted>0</tilted></_>
    <_>
      <rects>
        <_>
          13 2 4 27 -1.</_>
        <_>
          13 11 4 9 3.</_></rects>
      <tilted>0</tilted></_>
    <_>
      <rects>
        <_>
          13 3 5 24 -1.</_>
        <_>
          13 11 5 8 3.</_></rects>
      <tilted>0</tilted></_>
    <_>
      <rects>
        <_>
          13 3 7 4 -1.</_>
        <_>
          13 5 7 2 2.</_></rects>
      <tilted>0</tilted></_>
    <_>
      <rects>
        <_>
          13 4 5 21 -1.</_>
        <_>
          13 11 5 7 3.</_></rects>
      <tilted>0</tilted></_>
    <_>
      <rects>
        <_>
          13 10 4 20 -1.</_>
        <_>
          13 20 4 10 2.</_></rects>
      <tilted>0</tilted></_>
    <_>
      <rects>
        <_>
          13 11 5 18 -1.</_>
        <_>
          13 20 5 9 2.</_></rects>
      <tilted>0</tilted></_>
    <_>
      <rects>
        <_>
          13 12 5 18 -1.</_>
        <_>
          13 21 5 9 2.</_></rects>
      <tilted>0</tilted></_>
    <_>
      <rects>
        <_>
          13 16 3 1 -1.</_>
        <_>
          14 16 1 1 3.</_></rects>
      <tilted>0</tilted></_>
    <_>
      <rects>
        <_>
          14 0 16 2 -1.</_>
        <_>
          22 0 8 2 2.</_></rects>
      <tilted>0</tilted></_>
    <_>
      <rects>
        <_>
          14 3 4 22 -1.</_>
        <_>
          16 3 2 22 2.</_></rects>
      <tilted>0</tilted></_>
    <_>
      <rects>
        <_>
          14 8 4 17 -1.</_>
        <_>
          16 8 2 17 2.</_></rects>
      <tilted>0</tilted></_>
    <_>
      <rects>
        <_>
          14 14 1 2 -1.</_>
        <_>
          14 15 1 1 2.</_></rects>
      <tilted>0</tilted></_>
    <_>
      <rects>
        <_>
          14 16 3 1 -1.</_>
        <_>
          15 16 1 1 3.</_></rects>
      <tilted>0</tilted></_>
    <_>
      <rects>
        <_>
          15 1 6 24 -1.</_>
        <_>
          15 9 6 8 3.</_></rects>
      <tilted>0</tilted></_>
    <_>
      <rects>
        <_>
          15 14 1 3 -1.</_>
        <_>
          15 15 1 1 3.</_></rects>
      <tilted>0</tilted></_>
    <_>
      <rects>
        <_>
          15 15 1 3 -1.</_>
        <_>
          15 16 1 1 3.</_></rects>
      <tilted>0</tilted></_>
    <_>
      <rects>
        <_>
          15 16 1 3 -1.</_>
        <_>
          15 17 1 1 3.</_></rects>
      <tilted>0</tilted></_>
    <_>
      <rects>
        <_>
          17 12 4 17 -1.</_>
        <_>
          19 12 2 17 2.</_></rects>
      <tilted>0</tilted></_>
    <_>
      <rects>
        <_>
          17 13 9 5 -1.</_>
        <_>
          20 13 3 5 3.</_></rects>
      <tilted>0</tilted></_>
    <_>
      <rects>
        <_>
          18 12 9 6 -1.</_>
        <_>
          21 12 3 6 3.</_></rects>
      <tilted>0</tilted></_>
    <_>
      <rects>
        <_>
          22 6 8 19 -1.</_>
        <_>
          26 6 4 19 2.</_></rects>
      <tilted>0</tilted></_>
    <_>
      <rects>
        <_>
          23 14 6 2 -1.</_>
        <_>
          26 14 3 2 2.</_></rects>
      <tilted>0</tilted></_>
    <_>
      <rects>
        <_>
          24 1 6 26 -1.</_>
        <_>
          27 1 3 26 2.</_></rects>
      <tilted>0</tilted></_>
    <_>
      <rects>
        <_>
          26 2 4 27 -1.</_>
        <_>
          28 2 2 27 2.</_></rects>
      <tilted>0</tilted></_>
    <_>
      <rects>
        <_>
          28 2 2 16 -1.</_>
        <_>
          29 2 1 16 2.</_></rects>
      <tilted>0</tilted></_>
    <_>
      <rects>
        <_>
          28 3 2 25 -1.</_>
        <_>
          29 3 1 25 2.</_></rects>
      <tilted>0</tilted></_>
    <_>
      <rects>
        <_>
          28 4 2 25 -1.</_>
        <_>
          29 4 1 25 2.</_></rects>
      <tilted>0</tilted></_>
    <_>
      <rects>
        <_>
          29 0 1 24 -1.</_>
        <_>
          29 12 1 12 2.</_></rects>
      <tilted>0</tilted></_>
    <_>
      <rects>
        <_>
          29 2 1 27 -1.</_>
        <_>
          29 11 1 9 3.</_></rects>
      <tilted>0</tilted></_></features></cascade>
</opencv_storage>
